digraph Tree {
node [shape=box, style="filled", color="black"] ;
0 [label="mean concave points <= 0.049\ngini = 0.468\nsamples = 426\nvalue = [267, 159]\nclass = B", fillcolor="#f4ccaf"] ;
1 [label="worst area <= 952.9\ngini = 0.095\nsamples = 260\nvalue = [247, 13]\nclass = B", fillcolor="#e68843"] ;
0 -> 1 [labeldistance=2.5, labelangle=45, headlabel="True"] ;
2 [label="area error <= 42.19\ngini = 0.054\nsamples = 252\nvalue = [245, 7]\nclass = B", fillcolor="#e6853f"] ;
1 -> 2 ;
3 [label="worst compactness <= 0.454\ngini = 0.032\nsamples = 247\nvalue = [243, 4]\nclass = B", fillcolor="#e5833c"] ;
2 -> 3 ;
4 [label="worst texture <= 30.145\ngini = 0.024\nsamples = 246\nvalue = [243, 3]\nclass = B", fillcolor="#e5833b"] ;
3 -> 4 ;
5 [label="gini = 0.0\nsamples = 215\nvalue = [215, 0]\nclass = B", fillcolor="#e58139"] ;
4 -> 5 ;
6 [label="gini = 0.175\nsamples = 31\nvalue = [28, 3]\nclass = B", fillcolor="#e88e4e"] ;
4 -> 6 ;
7 [label="gini = 0.0\nsamples = 1\nvalue = [0, 1]\nclass = M", fillcolor="#399de5"] ;
3 -> 7 ;
8 [label="compactness error <= 0.016\ngini = 0.48\nsamples = 5\nvalue = [2, 3]\nclass = M", fillcolor="#bddef6"] ;
2 -> 8 ;
9 [label="gini = 0.0\nsamples = 3\nvalue = [0, 3]\nclass = M", fillcolor="#399de5"] ;
8 -> 9 ;
10 [label="gini = 0.0\nsamples = 2\nvalue = [2, 0]\nclass = B", fillcolor="#e58139"] ;
8 -> 10 ;
11 [label="mean texture <= 18.96\ngini = 0.375\nsamples = 8\nvalue = [2, 6]\nclass = M", fillcolor="#7bbeee"] ;
1 -> 11 ;
12 [label="gini = 0.0\nsamples = 2\nvalue = [2, 0]\nclass = B", fillcolor="#e58139"] ;
11 -> 12 ;
13 [label="gini = 0.0\nsamples = 6\nvalue = [0, 6]\nclass = M", fillcolor="#399de5"] ;
11 -> 13 ;
14 [label="worst area <= 785.8\ngini = 0.212\nsamples = 166\nvalue = [20, 146]\nclass = M", fillcolor="#54aae9"] ;
0 -> 14 [labeldistance=2.5, labelangle=-45, headlabel="False"] ;
15 [label="worst texture <= 23.74\ngini = 0.491\nsamples = 30\nvalue = [17, 13]\nclass = B", fillcolor="#f9e1d0"] ;
14 -> 15 ;
16 [label="gini = 0.0\nsamples = 14\nvalue = [14, 0]\nclass = B", fillcolor="#e58139"] ;
15 -> 16 ;
17 [label="worst compactness <= 0.263\ngini = 0.305\nsamples = 16\nvalue = [3, 13]\nclass = M", fillcolor="#67b4eb"] ;
15 -> 17 ;
18 [label="gini = 0.0\nsamples = 3\nvalue = [3, 0]\nclass = B", fillcolor="#e58139"] ;
17 -> 18 ;
19 [label="gini = 0.0\nsamples = 13\nvalue = [0, 13]\nclass = M", fillcolor="#399de5"] ;
17 -> 19 ;
20 [label="perimeter error <= 1.397\ngini = 0.043\nsamples = 136\nvalue = [3, 133]\nclass = M", fillcolor="#3d9fe6"] ;
14 -> 20 ;
21 [label="gini = 0.0\nsamples = 2\nvalue = [2, 0]\nclass = B", fillcolor="#e58139"] ;
20 -> 21 ;
22 [label="worst concavity <= 0.182\ngini = 0.015\nsamples = 134\nvalue = [1, 133]\nclass = M", fillcolor="#3a9ee5"] ;
20 -> 22 ;
23 [label="gini = 0.0\nsamples = 1\nvalue = [1, 0]\nclass = B", fillcolor="#e58139"] ;
22 -> 23 ;
24 [label="gini = 0.0\nsamples = 133\nvalue = [0, 133]\nclass = M", fillcolor="#399de5"] ;
22 -> 24 ;
}